Language model created by QuickLM on Sat Nov 26 20:53:31 EST 2016
Copyright (c) 1996-2010 Carnegie Mellon University and Alexander I. Rudnicky

The model is in standard ARPA format, designed by Doug Paul while he was at MITRE.

The code that was used to produce this language model is available in Open Source.
Please visit http://www.speech.cs.cmu.edu/tools/ for more information

The (fixed) discount mass is 0.5. The backoffs are computed using the ratio method.
This model based on a corpus of 30 sentences and 43 words

\data\
ngram 1=43
ngram 2=75
ngram 3=63

\1-grams:
-0.9138 </s> -0.3010
-0.9138 <s> -0.2385
-2.3909 ABORT -0.2445
-2.0899 ARE -0.2957
-2.3909 AUTONOMOUS -0.2975
-2.3909 BACKWARD -0.2445
-2.3909 CANCEL -0.2445
-2.3909 DEMO -0.2975
-2.0899 DOWN -0.2445
-2.3909 FASTER -0.2445
-2.3909 FORWARD -0.2445
-2.3909 FULL -0.2939
-2.3909 GOTO -0.2993
-2.3909 HALF -0.2939
-2.3909 HELP -0.2445
-2.3909 HOW -0.2993
-2.0899 IS -0.2957
-2.3909 IT -0.2445
-2.0899 LEFT -0.2445
-2.0899 LISTENING -0.2445
-2.0899 MODE -0.2445
-1.6128 MOVE -0.2867
-2.3909 NAME -0.2445
-2.3909 OFF -0.2445
-2.3909 OLD -0.2975
-2.3909 PANIC -0.2445
-2.3909 QUARTER -0.2939
-2.0899 RIGHT -0.2445
-2.3909 SHUT -0.2975
-2.3909 SLEEP -0.2445
-2.3909 SLOW -0.2975
-2.3909 SLOWER -0.2445
-2.3909 SPECS -0.2445
-1.7889 SPEED -0.2405
-2.3909 START -0.2975
-2.0899 STOP -0.2405
-2.3909 TIME -0.2975
-1.9138 TURN -0.2921
-2.0899 UP -0.2445
-2.3909 WAKE -0.2975
-1.9138 WHAT -0.2921
-2.3909 YOU -0.2445
-2.0899 YOUR -0.2975

\2-grams:
-1.7782 <s> ABORT 0.0000
-1.7782 <s> AUTONOMOUS 0.0000
-1.7782 <s> CANCEL 0.0000
-1.7782 <s> DEMO 0.0000
-1.7782 <s> FULL 0.0000
-1.7782 <s> GOTO 0.0000
-1.7782 <s> HALF 0.0000
-1.7782 <s> HELP 0.0000
-1.7782 <s> HOW 0.0000
-1.0000 <s> MOVE 0.0000
-1.7782 <s> PANIC 0.0000
-1.7782 <s> QUARTER 0.0000
-1.7782 <s> SHUT 0.0000
-1.7782 <s> SLOW 0.0000
-1.7782 <s> SPEED -0.2430
-1.7782 <s> START 0.0000
-1.4771 <s> STOP 0.0000
-1.3010 <s> TURN 0.0000
-1.7782 <s> WAKE 0.0000
-1.3010 <s> WHAT 0.0000
-0.3010 ABORT </s> -0.3010
-0.6021 ARE YOU 0.0000
-0.6021 ARE YOUR -0.1761
-0.3010 AUTONOMOUS MODE 0.0000
-0.3010 BACKWARD </s> -0.3010
-0.3010 CANCEL </s> -0.3010
-0.3010 DEMO MODE 0.0000
-0.3010 DOWN </s> -0.3010
-0.3010 FASTER </s> -0.3010
-0.3010 FORWARD </s> -0.3010
-0.3010 FULL SPEED -0.0969
-0.3010 GOTO SLEEP 0.0000
-0.3010 HALF SPEED -0.0969
-0.3010 HELP </s> -0.3010
-0.3010 HOW OLD 0.0000
-0.6021 IS IT 0.0000
-0.6021 IS YOUR -0.1761
-0.3010 IT </s> -0.3010
-0.3010 LEFT </s> -0.3010
-0.3010 LISTENING </s> -0.3010
-0.3010 MODE </s> -0.3010
-1.0792 MOVE BACKWARD 0.0000
-1.0792 MOVE FASTER 0.0000
-1.0792 MOVE FORWARD 0.0000
-1.0792 MOVE LEFT 0.0000
-1.0792 MOVE RIGHT 0.0000
-1.0792 MOVE SLOWER 0.0000
-0.3010 NAME </s> -0.3010
-0.3010 OFF </s> -0.3010
-0.3010 OLD ARE -0.1761
-0.3010 PANIC </s> -0.3010
-0.3010 QUARTER SPEED -0.0969
-0.3010 RIGHT </s> -0.3010
-0.3010 SHUT DOWN 0.0000
-0.3010 SLEEP </s> -0.3010
-0.3010 SLOW DOWN 0.0000
-0.3010 SLOWER </s> -0.3010
-0.3010 SPECS </s> -0.3010
-0.4260 SPEED </s> -0.3010
-0.9031 SPEED UP 0.0000
-0.3010 START LISTENING 0.0000
-0.6021 STOP </s> -0.3010
-0.6021 STOP LISTENING 0.0000
-0.3010 TIME IS -0.1761
-0.7782 TURN LEFT 0.0000
-0.7782 TURN OFF 0.0000
-0.7782 TURN RIGHT 0.0000
-0.3010 UP </s> -0.3010
-0.3010 WAKE UP 0.0000
-0.7782 WHAT ARE -0.1761
-0.7782 WHAT IS -0.1761
-0.7782 WHAT TIME 0.0000
-0.3010 YOU </s> -0.3010
-0.6021 YOUR NAME 0.0000
-0.6021 YOUR SPECS 0.0000

\3-grams:
-0.3010 <s> ABORT </s>
-0.3010 <s> AUTONOMOUS MODE
-0.3010 <s> CANCEL </s>
-0.3010 <s> DEMO MODE
-0.3010 <s> FULL SPEED
-0.3010 <s> GOTO SLEEP
-0.3010 <s> HALF SPEED
-0.3010 <s> HELP </s>
-0.3010 <s> HOW OLD
-1.0792 <s> MOVE BACKWARD
-1.0792 <s> MOVE FASTER
-1.0792 <s> MOVE FORWARD
-1.0792 <s> MOVE LEFT
-1.0792 <s> MOVE RIGHT
-1.0792 <s> MOVE SLOWER
-0.3010 <s> PANIC </s>
-0.3010 <s> QUARTER SPEED
-0.3010 <s> SHUT DOWN
-0.3010 <s> SLOW DOWN
-0.3010 <s> SPEED UP
-0.3010 <s> START LISTENING
-0.6021 <s> STOP </s>
-0.6021 <s> STOP LISTENING
-0.7782 <s> TURN LEFT
-0.7782 <s> TURN OFF
-0.7782 <s> TURN RIGHT
-0.3010 <s> WAKE UP
-0.7782 <s> WHAT ARE
-0.7782 <s> WHAT IS
-0.7782 <s> WHAT TIME
-0.3010 ARE YOU </s>
-0.3010 ARE YOUR SPECS
-0.3010 AUTONOMOUS MODE </s>
-0.3010 DEMO MODE </s>
-0.3010 FULL SPEED </s>
-0.3010 GOTO SLEEP </s>
-0.3010 HALF SPEED </s>
-0.3010 HOW OLD ARE
-0.3010 IS IT </s>
-0.3010 IS YOUR NAME
-0.3010 MOVE BACKWARD </s>
-0.3010 MOVE FASTER </s>
-0.3010 MOVE FORWARD </s>
-0.3010 MOVE LEFT </s>
-0.3010 MOVE RIGHT </s>
-0.3010 MOVE SLOWER </s>
-0.3010 OLD ARE YOU
-0.3010 QUARTER SPEED </s>
-0.3010 SHUT DOWN </s>
-0.3010 SLOW DOWN </s>
-0.3010 SPEED UP </s>
-0.3010 START LISTENING </s>
-0.3010 STOP LISTENING </s>
-0.3010 TIME IS IT
-0.3010 TURN LEFT </s>
-0.3010 TURN OFF </s>
-0.3010 TURN RIGHT </s>
-0.3010 WAKE UP </s>
-0.3010 WHAT ARE YOUR
-0.3010 WHAT IS YOUR
-0.3010 WHAT TIME IS
-0.3010 YOUR NAME </s>
-0.3010 YOUR SPECS </s>

\end\
